{
  "W1": [
    [
      0.1970698500037527,
      -1.195921117069745,
      1.645383830654274,
      -0.1682162127154808,
      -0.03865130219069451,
      -0.1022244137579338,
      -0.4001609118574741,
      0.022689077452642703
    ],
    [
      1.875118761453741,
      0.3632298266187448,
      -0.6500142013793683,
      0.4006253325364635,
      -0.02562115514742845,
      0.5979544143437835,
      1.3420181035023895,
      0.0597609076298527
    ],
    [
      -0.3321723313375364,
      0.8314585930635721,
      0.23390733328997326,
      -0.5746582612478602,
      -0.06164776623203201,
      -0.019290437997865336,
      -0.19324433254183443,
      0.06305759590629376
    ]
  ],
  "b1": [
    0.6827924840226449,
    -0.0014425504003370314,
    0.15608243286439702
  ],
  "weights": [
    [
      1.6584780952873317,
      -1.121485224098239,
      -0.46664303709517785
    ],
    [
      -0.677825245367162,
      -0.9212655175637472,
      0.8963142673455807
    ],
    [
      -1.1316804796353628,
      1.9075069801352025,
      -0.39329471439447855
    ]
  ],
  "bias": [
    -0.7844421802826669,
    1.6132799160644666,
    -0.6894123353753953
  ]
}